3 200
</s> 0.002001 0.002210 -0.001915 -0.001639 0.000683 0.001511 0.000470 0.000106 -0.001802 0.001109 -0.002178 0.000625 -0.000376 -0.000479 -0.001658 -0.000941 0.001290 0.001513 0.001485 0.000799 0.000772 -0.001901 -0.002048 0.002485 0.001901 0.001545 -0.000302 0.002008 -0.000247 0.000367 -0.000075 -0.001492 0.000656 -0.000669 -0.001913 0.002377 0.002190 -0.000548 -0.000113 0.000255 -0.001819 -0.002004 0.002277 0.000032 -0.001291 -0.001521 -0.001538 0.000848 0.000101 0.000666 -0.002107 -0.001904 -0.000065 0.000572 0.001275 -0.001585 0.002040 0.000463 0.000560 -0.000304 0.001493 -0.001144 -0.001049 0.001079 -0.000377 0.000515 0.000902 -0.002044 -0.000992 0.001457 0.002116 0.001966 -0.001523 -0.001054 -0.000455 0.001001 -0.001894 0.001499 0.001394 -0.000799 -0.000776 -0.001119 0.002114 0.001956 -0.000590 0.002107 0.002410 0.000908 0.002491 -0.001556 -0.000766 -0.001054 -0.001454 0.001407 0.000790 0.000212 -0.001097 0.000762 0.001530 0.000097 0.001140 -0.002476 0.002157 0.000240 -0.000916 -0.001042 -0.000374 -0.001468 -0.002185 -0.001419 0.002139 -0.000885 -0.001340 0.001159 -0.000852 0.002378 -0.000802 -0.002294 0.001358 -0.000037 -0.001744 0.000488 0.000721 -0.000241 0.000912 -0.001979 0.000441 0.000908 -0.001505 0.000071 -0.000030 -0.001200 -0.001416 -0.002347 0.000011 0.000076 0.000005 -0.001967 -0.002481 -0.002373 -0.002163 -0.000274 0.000696 0.000592 -0.001591 0.002499 -0.001006 -0.000637 -0.000702 0.002366 -0.001882 0.000581 -0.000668 0.001594 0.000020 0.002135 -0.001410 -0.001303 -0.002096 -0.001833 -0.001600 -0.001557 0.001222 -0.000933 0.001340 0.001845 0.000678 0.001475 0.001238 0.001170 -0.001775 -0.001717 -0.001828 -0.000066 0.002065 -0.001368 -0.001530 -0.002098 0.001653 -0.002089 -0.000290 0.001089 -0.002309 -0.002239 0.000721 0.001762 0.002132 0.001073 0.001581 -0.001564 -0.001820 0.001987 -0.001382 0.000877 0.000287 0.000895 -0.000591 0.000099 -0.000843 -0.000563 
 0.033752 0.019165 -0.013189 -0.012165 0.000773 0.000614 0.000947 0.004167 0.053490 -0.109951 -0.089736 0.052167 -0.007843 0.041625 -0.009383 -0.038193 -0.091238 0.052265 0.070303 0.076877 -0.011391 -0.009012 0.052515 -0.130749 0.126663 -0.195286 -0.085843 0.021596 0.195031 -0.209890 -0.047078 0.048633 0.018669 0.060257 0.063215 -0.017496 0.001850 0.184587 0.116289 0.060930 -0.072947 -0.040727 0.005256 -0.044394 -0.023759 -0.133462 0.044435 -0.154220 0.063216 0.070452 -0.010505 0.105882 0.084048 0.050759 -0.155838 0.021421 0.041001 0.181764 -0.072556 0.028951 -0.080272 0.060295 0.050809 0.030891 -0.146456 -0.012930 -0.074894 0.024356 -0.003127 0.058008 0.118790 -0.171222 0.046607 0.124833 -0.165041 0.182095 0.043292 -0.130912 0.173320 0.132721 -0.110021 -0.069981 -0.073291 -0.205930 -0.092035 -0.032014 0.023259 0.165074 -0.039055 0.165723 0.034378 -0.016596 -0.065746 0.054838 -0.066439 0.124341 0.076550 0.046670 -0.017523 -0.103611 0.160499 -0.011940 -0.101401 -0.057173 -0.012931 0.083801 -0.122433 0.191323 -0.036848 -0.123573 0.079229 -0.059129 -0.061151 0.043449 0.099603 -0.128145 0.011897 0.157722 -0.193892 0.114887 0.143425 -0.116622 0.087013 0.001725 0.117329 0.080665 -0.159988 -0.091522 -0.119574 0.135406 0.121619 0.002210 0.022102 -0.104016 -0.119889 -0.136981 0.142084 0.028293 -0.065636 -0.055413 -0.070931 -0.083529 0.186695 -0.025190 -0.061305 0.104599 0.029647 0.009243 -0.109292 0.038624 -0.166478 0.026867 0.043222 0.072601 0.139226 -0.016670 0.088220 -0.121166 -0.039958 0.175763 -0.066691 -0.029805 -0.153520 0.093648 -0.117953 -0.163346 0.108601 0.046913 0.034350 -0.004803 -0.009674 -0.067611 0.097029 0.106590 0.053605 0.040769 -0.003869 0.122056 -0.006144 0.076814 -0.017189 -0.041116 0.047943 0.142144 -0.033314 0.016772 -0.000885 -0.015749 0.049388 0.073240 0.054247 0.009662 -0.027165 -0.131719 0.004831 -0.015640 -0.022366 -0.032294 -0.078669 -0.007544 
N 2.055125 0.919487 -0.219355 -0.937963 -0.120837 -0.076928 0.208382 -0.032598 1.578469 -3.260383 -2.362827 0.217236 -1.171586 0.505746 0.740291 -2.732843 -1.104858 -1.845815 -3.214963 -2.816278 0.299204 -2.376531 -2.203977 -0.715188 -1.046087 0.276234 -1.294157 0.539212 -0.643859 0.622462 0.309470 0.759859 0.014708 -1.127118 1.106799 1.549008 0.461277 -0.327331 0.307228 -0.567907 1.491611 -0.142837 -0.422590 0.925329 -1.613658 1.348670 -1.158852 0.216930 -0.701543 -0.645342 0.600163 -0.508947 0.390183 -1.403465 0.272730 0.589699 -0.873848 -0.787895 -1.256361 0.532086 -0.583861 0.593643 -0.481643 -0.845239 0.683556 0.424186 -1.965307 0.012057 -1.863748 -1.491031 0.310962 0.827526 -1.609100 -0.282506 1.059007 -0.600666 2.135856 0.250536 -0.937697 -0.704694 -0.279739 -0.857373 0.899885 0.833206 -1.434423 -2.016356 -1.557363 -0.224288 -0.798264 0.132591 0.210802 -0.703378 0.639606 -0.043843 -0.706369 0.703047 -0.558336 -0.027599 1.502080 -0.046345 0.081853 -1.547011 0.996445 -0.755751 -1.857914 -1.385413 1.339690 -0.278290 1.108045 0.022284 -0.166439 -1.472220 1.585433 1.546800 -0.016703 -0.864157 -2.100839 -0.113029 0.173879 0.676318 0.451995 0.411650 -0.966221 1.263559 -1.581400 0.159923 1.118366 -0.712711 -0.486442 0.373534 -0.684089 -0.038883 0.222638 -0.681719 0.576350 -0.591556 -0.574822 -1.424005 -1.342179 1.934622 -0.533154 0.657284 -0.489499 -2.073838 -1.807865 -0.028669 -0.363164 0.813503 0.390299 1.287444 0.703836 0.066177 -0.057186 -0.102788 0.056031 1.777702 -0.828699 -0.349526 1.837318 -0.488194 0.870722 0.160824 0.886787 -1.552249 0.089794 1.082385 -1.068631 -0.424363 -1.178383 -0.607563 -1.668872 -0.818765 -0.627263 -0.818587 -0.213591 0.655123 -0.575218 -0.482414 1.326367 1.052486 -0.765625 -1.408116 0.193628 -0.424238 -0.916331 -1.239579 1.411175 0.695220 -0.370572 -1.413605 -0.173101 -0.212785 1.920522 0.696684 -2.016248 -1.330271 1.229019 0.498175 1.139356 1.576201 
